digraph Tree {
node [shape=box, style="filled, rounded", color="black", fontname=helvetica] ;
edge [fontname=helvetica] ;
0 [label="sepal length (cm) <= 5.45\ngini = 0.66\nsamples = 99\nvalue = [51, 55, 44]\nclass = versicolor", fillcolor="#f7fefa"] ;
1 [label="petal length (cm) <= 2.6\ngini = 0.23\nsamples = 33\nvalue = [45, 7, 0]\nclass = setosa", fillcolor="#e99558"] ;
0 -> 1 [labeldistance=2.5, labelangle=45, headlabel="True"] ;
2 [label="gini = 0.0\nsamples = 28\nvalue = [45, 0, 0]\nclass = setosa", fillcolor="#e58139"] ;
1 -> 2 ;
3 [label="gini = 0.0\nsamples = 5\nvalue = [0, 7, 0]\nclass = versicolor", fillcolor="#39e581"] ;
1 -> 3 ;
4 [label="petal length (cm) <= 5.05\ngini = 0.55\nsamples = 66\nvalue = [6, 48, 44]\nclass = versicolor", fillcolor="#f0fdf6"] ;
0 -> 4 [labeldistance=2.5, labelangle=-45, headlabel="False"] ;
5 [label="petal width (cm) <= 0.7\ngini = 0.3\nsamples = 38\nvalue = [6, 48, 4]\nclass = versicolor", fillcolor="#5fea99"] ;
4 -> 5 ;
6 [label="gini = 0.0\nsamples = 2\nvalue = [6, 0, 0]\nclass = setosa", fillcolor="#e58139"] ;
5 -> 6 ;
7 [label="petal width (cm) <= 1.75\ngini = 0.14\nsamples = 36\nvalue = [0, 48, 4]\nclass = versicolor", fillcolor="#49e78c"] ;
5 -> 7 ;
8 [label="gini = 0.0\nsamples = 32\nvalue = [0, 47, 0]\nclass = versicolor", fillcolor="#39e581"] ;
7 -> 8 ;
9 [label="petal length (cm) <= 4.85\ngini = 0.32\nsamples = 4\nvalue = [0, 1, 4]\nclass = virginica", fillcolor="#a06aec"] ;
7 -> 9 ;
10 [label="gini = 0.0\nsamples = 1\nvalue = [0, 1, 0]\nclass = versicolor", fillcolor="#39e581"] ;
9 -> 10 ;
11 [label="gini = 0.0\nsamples = 3\nvalue = [0, 0, 4]\nclass = virginica", fillcolor="#8139e5"] ;
9 -> 11 ;
12 [label="gini = 0.0\nsamples = 28\nvalue = [0, 0, 40]\nclass = virginica", fillcolor="#8139e5"] ;
4 -> 12 ;
}